digraph Tree {
node [shape=box, style="filled", color="black", fontname="helvetica"] ;
edge [fontname="helvetica"] ;
0 [label="x1 <= 4.0\nsquared_error = 0.25\nsamples = 12\nvalue = 0.5", fillcolor="#f2c09c"] ;
1 [label="squared_error = 0.139\nsamples = 6\nvalue = 0.167", fillcolor="#ffffff"] ;
0 -> 1 [labeldistance=2.5, labelangle=45, headlabel="True"] ;
2 [label="squared_error = 0.139\nsamples = 6\nvalue = 0.833", fillcolor="#e58139"] ;
0 -> 2 [labeldistance=2.5, labelangle=-45, headlabel="False"] ;
}
